digraph Tree {
node [shape=box, style="filled, rounded", color="black", fontname=helvetica] ;
edge [fontname=helvetica] ;
0 [label="Site EUI (kBtu/ft²) <= 24.45\nfriedman_mse = 0.999\nsamples = 6622\nvalue = 0.03", fillcolor="#e58139da"] ;
1 [label="Largest Property Use Type_Multifamily Housing <= 0.5\nfriedman_mse = 0.571\nsamples = 336\nvalue = 0.655", fillcolor="#e58139e0"] ;
0 -> 1 [labeldistance=2.5, labelangle=45, headlabel="True"] ;
2 [label="log_Direct GHG Emissions (Metric Tons CO2e) <= 1.677\nfriedman_mse = 0.987\nsamples = 95\nvalue = 0.116", fillcolor="#e58139da"] ;
1 -> 2 ;
3 [label="Site EUI (kBtu/ft²) <= 7.2\nfriedman_mse = 0.556\nsamples = 12\nvalue = 0.667", fillcolor="#e58139e0"] ;
2 -> 3 ;
4 [label="(...)", fillcolor="#C0C0C0"] ;
3 -> 4 ;
5 [label="(...)", fillcolor="#C0C0C0"] ;
3 -> 5 ;
6 [label="log_Water Intensity (All Water Sources) (gal/ft²) <= -0.249\nfriedman_mse = 0.999\nsamples = 83\nvalue = 0.036", fillcolor="#e58139da"] ;
2 -> 6 ;
7 [label="(...)", fillcolor="#C0C0C0"] ;
6 -> 7 ;
8 [label="(...)", fillcolor="#C0C0C0"] ;
6 -> 8 ;
11 [label="Weather Normalized Site Electricity Intensity (kWh/ft²) <= 5.55\nfriedman_mse = 0.248\nsamples = 241\nvalue = 0.867", fillcolor="#e58139e2"] ;
1 -> 11 ;
12 [label="Property Id <= 5873823.5\nfriedman_mse = 0.088\nsamples = 221\nvalue = 0.955", fillcolor="#e58139e2"] ;
11 -> 12 ;
13 [label="(...)", fillcolor="#C0C0C0"] ;
12 -> 13 ;
16 [label="(...)", fillcolor="#C0C0C0"] ;
12 -> 16 ;
17 [label="Site EUI (kBtu/ft²) <= 22.5\nfriedman_mse = 0.99\nsamples = 20\nvalue = -0.1", fillcolor="#e58139d8"] ;
11 -> 17 ;
18 [label="(...)", fillcolor="#C0C0C0"] ;
17 -> 18 ;
19 [label="(...)", fillcolor="#C0C0C0"] ;
17 -> 19 ;
20 [label="log_Direct GHG Emissions (Metric Tons CO2e) <= 4.378\nfriedman_mse = 1.0\nsamples = 6286\nvalue = -0.003", fillcolor="#e58139d9"] ;
0 -> 20 [labeldistance=2.5, labelangle=-45, headlabel="False"] ;
21 [label="DOF Gross Floor Area <= 91616.5\nfriedman_mse = 0.992\nsamples = 387\nvalue = -0.09", fillcolor="#e58139d8"] ;
20 -> 21 ;
22 [label="Property Id <= 4408969.0\nfriedman_mse = 0.943\nsamples = 171\nvalue = -0.24", fillcolor="#e58139d7"] ;
21 -> 22 ;
23 [label="(...)", fillcolor="#C0C0C0"] ;
22 -> 23 ;
26 [label="(...)", fillcolor="#C0C0C0"] ;
22 -> 26 ;
29 [label="log_Water Intensity (All Water Sources) (gal/ft²) <= 4.099\nfriedman_mse = 0.999\nsamples = 216\nvalue = 0.028", fillcolor="#e58139da"] ;
21 -> 29 ;
30 [label="(...)", fillcolor="#C0C0C0"] ;
29 -> 30 ;
33 [label="(...)", fillcolor="#C0C0C0"] ;
29 -> 33 ;
36 [label="log_Direct GHG Emissions (Metric Tons CO2e) <= 4.52\nfriedman_mse = 1.0\nsamples = 5899\nvalue = 0.002", fillcolor="#e58139d9"] ;
20 -> 36 ;
37 [label="DOF Gross Floor Area <= 181127.5\nfriedman_mse = 0.903\nsamples = 61\nvalue = 0.311", fillcolor="#e58139dc"] ;
36 -> 37 ;
38 [label="(...)", fillcolor="#C0C0C0"] ;
37 -> 38 ;
41 [label="(...)", fillcolor="#C0C0C0"] ;
37 -> 41 ;
44 [label="Site EUI (kBtu/ft²) <= 26.1\nfriedman_mse = 1.0\nsamples = 5838\nvalue = -0.001", fillcolor="#e58139d9"] ;
36 -> 44 ;
45 [label="(...)", fillcolor="#C0C0C0"] ;
44 -> 45 ;
48 [label="(...)", fillcolor="#C0C0C0"] ;
44 -> 48 ;
}